## LambdaMART
## No. of trees = 300
## No. of leaves = 10
## No. of threshold candidates = 256
## Learning rate = 0.1
## Stop early = 100

<ensemble>
	<tree id="1" weight="0.1">
		<split>
			<feature> 114 </feature>
			<threshold> 0.28748488 </threshold>
			<split pos="left">
				<feature> 4 </feature>
				<threshold> 0.00390625 </threshold>
				<split pos="left">
					<feature> 162 </feature>
					<threshold> 0.006748633 </threshold>
					<split pos="left">
						<feature> 154 </feature>
						<threshold> 0.090196 </threshold>
						<split pos="left">
							<feature> 48 </feature>
							<threshold> 0.0 </threshold>
							<split pos="left">
								<feature> 14 </feature>
								<threshold> 0.8819272 </threshold>
								<split pos="left">
									<feature> 116 </feature>
									<threshold> 0.37458912 </threshold>
									<split pos="left">
										<feature> 5 </feature>
										<threshold> 0.0 </threshold>
										<split pos="left">
											<output> -0.33227143 </output>
										</split>
										<split pos="right">
											<output> 0.19091527 </output>
										</split>
									</split>
									<split pos="right">
										<output> 1.2332208 </output>
									</split>
								</split>
								<split pos="right">
									<output> 2.0 </output>
								</split>
							</split>
							<split pos="right">
								<feature> 130 </feature>
								<threshold> 0.89175814 </threshold>
								<split pos="left">
									<output> -0.50471807 </output>
								</split>
								<split pos="right">
									<output> -1.2641016 </output>
								</split>
							</split>
						</split>
						<split pos="right">
							<output> 0.31786788 </output>
						</split>
					</split>
					<split pos="right">
						<output> 0.53759634 </output>
					</split>
				</split>
				<split pos="right">
					<output> 0.58738786 </output>
				</split>
			</split>
			<split pos="right">
				<output> 1.4739788 </output>
			</split>
		</split>
	</tree>
	<tree id="2" weight="0.1">
		<split>
			<feature> 114 </feature>
			<threshold> 0.28748488 </threshold>
			<split pos="left">
				<feature> 228 </feature>
				<threshold> 0.03476633 </threshold>
				<split pos="left">
					<feature> 44 </feature>
					<threshold> 0.0 </threshold>
					<split pos="left">
						<feature> 200 </feature>
						<threshold> 0.2852316 </threshold>
						<split pos="left">
							<output> -0.2389806 </output>
						</split>
						<split pos="right">
							<output> -0.94946045 </output>
						</split>
					</split>
					<split pos="right">
						<feature> 167 </feature>
						<threshold> 0.611765 </threshold>
						<split pos="left">
							<feature> 118 </feature>
							<threshold> 0.9433806 </threshold>
							<split pos="left">
								<output> 0.17130059 </output>
							</split>
							<split pos="right">
								<output> -1.8857704 </output>
							</split>
						</split>
						<split pos="right">
							<output> 1.9171578 </output>
						</split>
					</split>
				</split>
				<split pos="right">
					<feature> 3 </feature>
					<threshold> 0.0 </threshold>
					<split pos="left">
						<output> 0.62401056 </output>
					</split>
					<split pos="right">
						<feature> 157 </feature>
						<threshold> 0.8 </threshold>
						<split pos="left">
							<output> 0.8668033 </output>
						</split>
						<split pos="right">
							<feature> 183 </feature>
							<threshold> 0.46044162 </threshold>
							<split pos="left">
								<output> 1.9255527 </output>
							</split>
							<split pos="right">
								<output> 1.5541788 </output>
							</split>
						</split>
					</split>
				</split>
			</split>
			<split pos="right">
				<output> 1.38229 </output>
			</split>
		</split>
	</tree>
	<tree id="3" weight="0.1">
		<split>
			<feature> 114 </feature>
			<threshold> 0.28748488 </threshold>
			<split pos="left">
				<feature> 228 </feature>
				<threshold> 0.03476633 </threshold>
				<split pos="left">
					<feature> 44 </feature>
					<threshold> 0.0 </threshold>
					<split pos="left">
						<feature> 200 </feature>
						<threshold> 0.27874905 </threshold>
						<split pos="left">
							<feature> 102 </feature>
							<threshold> 0.28102458 </threshold>
							<split pos="left">
								<feature> 75 </feature>
								<threshold> 0.329412 </threshold>
								<split pos="left">
									<output> 0.20237915 </output>
								</split>
								<split pos="right">
									<output> -0.4210253 </output>
								</split>
							</split>
							<split pos="right">
								<output> 1.9239694 </output>
							</split>
						</split>
						<split pos="right">
							<output> -0.85229146 </output>
						</split>
					</split>
					<split pos="right">
						<output> 0.117207825 </output>
					</split>
				</split>
				<split pos="right">
					<feature> 3 </feature>
					<threshold> 0.0 </threshold>
					<split pos="left">
						<output> 0.6030283 </output>
					</split>
					<split pos="right">
						<feature> 14 </feature>
						<threshold> 0.4721838 </threshold>
						<split pos="left">
							<feature> 84 </feature>
							<threshold> 0.0 </threshold>
							<split pos="left">
								<output> 1.5251337 </output>
							</split>
							<split pos="right">
								<output> 1.6792948 </output>
							</split>
						</split>
						<split pos="right">
							<output> 1.0151043 </output>
						</split>
					</split>
				</split>
			</split>
			<split pos="right">
				<output> 1.2347302 </output>
			</split>
		</split>
	</tree>
	<tree id="4" weight="0.1">
		<split>
			<feature> 114 </feature>
			<threshold> 0.28748488 </threshold>
			<split pos="left">
				<feature> 228 </feature>
				<threshold> 0.03476633 </threshold>
				<split pos="left">
					<feature> 44 </feature>
					<threshold> 0.0 </threshold>
					<split pos="left">
						<feature> 200 </feature>
						<threshold> 0.3727459 </threshold>
						<split pos="left">
							<feature> 102 </feature>
							<threshold> 0.3359372 </threshold>
							<split pos="left">
								<feature> 75 </feature>
								<threshold> 0.329412 </threshold>
								<split pos="left">
									<output> 0.20564868 </output>
								</split>
								<split pos="right">
									<output> -0.46033135 </output>
								</split>
							</split>
							<split pos="right">
								<output> 1.7308327 </output>
							</split>
						</split>
						<split pos="right">
							<output> -0.9564251 </output>
						</split>
					</split>
					<split pos="right">
						<output> 0.105333515 </output>
					</split>
				</split>
				<split pos="right">
					<feature> 3 </feature>
					<threshold> 0.0 </threshold>
					<split pos="left">
						<output> 0.50006056 </output>
					</split>
					<split pos="right">
						<feature> 95 </feature>
						<threshold> 0.9765625 </threshold>
						<split pos="left">
							<output> 1.1907169 </output>
						</split>
						<split pos="right">
							<feature> 186 </feature>
							<threshold> 0.803922 </threshold>
							<split pos="left">
								<output> 1.1362299 </output>
							</split>
							<split pos="right">
								<output> 1.5355388 </output>
							</split>
						</split>
					</split>
				</split>
			</split>
			<split pos="right">
				<output> 1.116264 </output>
			</split>
		</split>
	</tree>
	<tree id="5" weight="0.1">
		<split>
			<feature> 114 </feature>
			<threshold> 0.28748488 </threshold>
			<split pos="left">
				<feature> 228 </feature>
				<threshold> 0.03476633 </threshold>
				<split pos="left">
					<feature> 5 </feature>
					<threshold> 0.0 </threshold>
					<split pos="left">
						<feature> 154 </feature>
						<threshold> 0.090196 </threshold>
						<split pos="left">
							<feature> 11 </feature>
							<threshold> 0.6696296 </threshold>
							<split pos="left">
								<feature> 75 </feature>
								<threshold> 0.345098 </threshold>
								<split pos="left">
									<output> -0.073220335 </output>
								</split>
								<split pos="right">
									<output> -0.6214665 </output>
								</split>
							</split>
							<split pos="right">
								<output> 2.193499 </output>
							</split>
						</split>
						<split pos="right">
							<output> 0.26607278 </output>
						</split>
					</split>
					<split pos="right">
						<output> 0.053248513 </output>
					</split>
				</split>
				<split pos="right">
					<feature> 3 </feature>
					<threshold> 0.0 </threshold>
					<split pos="left">
						<output> 0.41597116 </output>
					</split>
					<split pos="right">
						<feature> 95 </feature>
						<threshold> 0.9765625 </threshold>
						<split pos="left">
							<output> 1.0721673 </output>
						</split>
						<split pos="right">
							<feature> 155 </feature>
							<threshold> 0.0 </threshold>
							<split pos="left">
								<output> 1.4181668 </output>
							</split>
							<split pos="right">
								<output> 1.1400206 </output>
							</split>
						</split>
					</split>
				</split>
			</split>
			<split pos="right">
				<output> 1.0182912 </output>
			</split>
		</split>
	</tree>
	<tree id="6" weight="0.1">
		<split>
			<feature> 114 </feature>
			<threshold> 0.3004055 </threshold>
			<split pos="left">
				<feature> 228 </feature>
				<threshold> 0.03476633 </threshold>
				<split pos="left">
					<feature> 154 </feature>
					<threshold> 0.090196 </threshold>
					<split pos="left">
						<feature> 182 </feature>
						<threshold> 0.055760138 </threshold>
						<split pos="left">
							<feature> 182 </feature>
							<threshold> 0.053615518 </threshold>
							<split pos="left">
								<feature> 104 </feature>
								<threshold> 0.294118 </threshold>
								<split pos="left">
									<output> 0.023905182 </output>
								</split>
								<split pos="right">
									<output> -0.5112281 </output>
								</split>
							</split>
							<split pos="right">
								<output> -1.6674747 </output>
							</split>
						</split>
						<split pos="right">
							<output> 0.21204819 </output>
						</split>
					</split>
					<split pos="right">
						<output> 0.3367409 </output>
					</split>
				</split>
				<split pos="right">
					<feature> 3 </feature>
					<threshold> 0.0 </threshold>
					<split pos="left">
						<output> 0.36942986 </output>
					</split>
					<split pos="right">
						<feature> 95 </feature>
						<threshold> 0.9765625 </threshold>
						<split pos="left">
							<output> 1.0117942 </output>
						</split>
						<split pos="right">
							<feature> 122 </feature>
							<threshold> 0.0 </threshold>
							<split pos="left">
								<output> 1.3418388 </output>
							</split>
							<split pos="right">
								<output> 0.9074262 </output>
							</split>
						</split>
					</split>
				</split>
			</split>
			<split pos="right">
				<output> 0.9816034 </output>
			</split>
		</split>
	</tree>
	<tree id="7" weight="0.1">
		<split>
			<feature> 114 </feature>
			<threshold> 0.28748488 </threshold>
			<split pos="left">
				<feature> 228 </feature>
				<threshold> 0.03476633 </threshold>
				<split pos="left">
					<feature> 4 </feature>
					<threshold> 0.00390625 </threshold>
					<split pos="left">
						<feature> 154 </feature>
						<threshold> 0.090196 </threshold>
						<split pos="left">
							<feature> 75 </feature>
							<threshold> 0.329412 </threshold>
							<split pos="left">
								<output> 0.083120294 </output>
							</split>
							<split pos="right">
								<feature> 182 </feature>
								<threshold> 0.0 </threshold>
								<split pos="left">
									<output> -0.59349227 </output>
								</split>
								<split pos="right">
									<output> -0.022910522 </output>
								</split>
							</split>
						</split>
						<split pos="right">
							<output> 0.23169358 </output>
						</split>
					</split>
					<split pos="right">
						<output> 0.31099272 </output>
					</split>
				</split>
				<split pos="right">
					<feature> 3 </feature>
					<threshold> 0.0 </threshold>
					<split pos="left">
						<output> 0.3186774 </output>
					</split>
					<split pos="right">
						<feature> 95 </feature>
						<threshold> 0.9765625 </threshold>
						<split pos="left">
							<output> 0.9122655 </output>
						</split>
						<split pos="right">
							<feature> 56 </feature>
							<threshold> 0.207843 </threshold>
							<split pos="left">
								<output> 1.2848761 </output>
							</split>
							<split pos="right">
								<output> 0.9669646 </output>
							</split>
						</split>
					</split>
				</split>
			</split>
			<split pos="right">
				<output> 0.8801601 </output>
			</split>
		</split>
	</tree>
	<tree id="8" weight="0.1">
		<split>
			<feature> 114 </feature>
			<threshold> 0.28748488 </threshold>
			<split pos="left">
				<feature> 228 </feature>
				<threshold> 0.03476633 </threshold>
				<split pos="left">
					<feature> 4 </feature>
					<threshold> 0.00390625 </threshold>
					<split pos="left">
						<feature> 134 </feature>
						<threshold> 0.0 </threshold>
						<split pos="left">
							<feature> 11 </feature>
							<threshold> 0.6696296 </threshold>
							<split pos="left">
								<feature> 154 </feature>
								<threshold> 0.090196 </threshold>
								<split pos="left">
									<output> -0.27621514 </output>
								</split>
								<split pos="right">
									<output> 0.251005 </output>
								</split>
							</split>
							<split pos="right">
								<output> 1.9974989 </output>
							</split>
						</split>
						<split pos="right">
							<output> -0.8421715 </output>
						</split>
					</split>
					<split pos="right">
						<output> 0.28441527 </output>
					</split>
				</split>
				<split pos="right">
					<feature> 3 </feature>
					<threshold> 0.0 </threshold>
					<split pos="left">
						<output> 0.27641934 </output>
					</split>
					<split pos="right">
						<feature> 157 </feature>
						<threshold> 0.8 </threshold>
						<split pos="left">
							<output> 0.60164315 </output>
						</split>
						<split pos="right">
							<feature> 183 </feature>
							<threshold> 0.46044162 </threshold>
							<split pos="left">
								<output> 1.2527752 </output>
							</split>
							<split pos="right">
								<output> 1.1278569 </output>
							</split>
						</split>
					</split>
				</split>
			</split>
			<split pos="right">
				<output> 0.81698495 </output>
			</split>
		</split>
	</tree>
	<tree id="9" weight="0.1">
		<split>
			<feature> 114 </feature>
			<threshold> 0.3004055 </threshold>
			<split pos="left">
				<feature> 228 </feature>
				<threshold> 0.03476633 </threshold>
				<split pos="left">
					<feature> 57 </feature>
					<threshold> 0.081210926 </threshold>
					<split pos="left">
						<output> -0.46067286 </output>
					</split>
					<split pos="right">
						<feature> 167 </feature>
						<threshold> 0.592157 </threshold>
						<split pos="left">
							<feature> 117 </feature>
							<threshold> 0.0 </threshold>
							<split pos="left">
								<feature> 31 </feature>
								<threshold> 0.492118 </threshold>
								<split pos="left">
									<feature> 87 </feature>
									<threshold> 0.066667 </threshold>
									<split pos="left">
										<output> 0.30783036 </output>
									</split>
									<split pos="right">
										<output> -0.12531088 </output>
									</split>
								</split>
								<split pos="right">
									<output> 1.485015 </output>
								</split>
							</split>
							<split pos="right">
								<output> -0.6215695 </output>
							</split>
						</split>
						<split pos="right">
							<output> 1.1290177 </output>
						</split>
					</split>
				</split>
				<split pos="right">
					<feature> 3 </feature>
					<threshold> 0.0 </threshold>
					<split pos="left">
						<output> 0.2478797 </output>
					</split>
					<split pos="right">
						<feature> 157 </feature>
						<threshold> 0.8 </threshold>
						<split pos="left">
							<output> 0.64190966 </output>
						</split>
						<split pos="right">
							<output> 1.188633 </output>
						</split>
					</split>
				</split>
			</split>
			<split pos="right">
				<output> 0.79827905 </output>
			</split>
		</split>
	</tree>
	<tree id="10" weight="0.1">
		<split>
			<feature> 102 </feature>
			<threshold> 0.39407998 </threshold>
			<split pos="left">
				<feature> 228 </feature>
				<threshold> 0.02433643 </threshold>
				<split pos="left">
					<feature> 182 </feature>
					<threshold> 0.01930159 </threshold>
					<split pos="left">
						<feature> 57 </feature>
						<threshold> 0.1701563 </threshold>
						<split pos="left">
							<output> -0.5188073 </output>
						</split>
						<split pos="right">
							<feature> 167 </feature>
							<threshold> 0.592157 </threshold>
							<split pos="left">
								<feature> 81 </feature>
								<threshold> 0.0 </threshold>
								<split pos="left">
									<output> -0.29631257 </output>
								</split>
								<split pos="right">
									<output> 0.24420716 </output>
								</split>
							</split>
							<split pos="right">
								<output> 1.0847216 </output>
							</split>
						</split>
					</split>
					<split pos="right">
						<output> 0.22455579 </output>
					</split>
				</split>
				<split pos="right">
					<feature> 192 </feature>
					<threshold> 0.008001453 </threshold>
					<split pos="left">
						<output> 0.1825057 </output>
					</split>
					<split pos="right">
						<feature> 198 </feature>
						<threshold> 0.049215175 </threshold>
						<split pos="left">
							<feature> 53 </feature>
							<threshold> 0.1796875 </threshold>
							<split pos="left">
								<output> 1.0350181 </output>
							</split>
							<split pos="right">
								<output> 1.1658229 </output>
							</split>
						</split>
						<split pos="right">
							<output> 0.71303594 </output>
						</split>
					</split>
				</split>
			</split>
			<split pos="right">
				<output> 1.0199759 </output>
			</split>
		</split>
	</tree>
	<tree id="11" weight="0.1">
		<split>
			<feature> 102 </feature>
			<threshold> 0.49421477 </threshold>
			<split pos="left">
				<feature> 31 </feature>
				<threshold> 0.33297524 </threshold>
				<split pos="left">
					<feature> 205 </feature>
					<threshold> 0.13403943 </threshold>
					<split pos="left">
						<feature> 110 </feature>
						<threshold> 0.0 </threshold>
						<split pos="left">
							<feature> 162 </feature>
							<threshold> 0.006748633 </threshold>
							<split pos="left">
								<feature> 57 </feature>
								<threshold> 0.1701563 </threshold>
								<split pos="left">
									<output> -0.43211836 </output>
								</split>
								<split pos="right">
									<feature> 212 </feature>
									<threshold> 0.611765 </threshold>
									<split pos="left">
										<output> 0.22187775 </output>
									</split>
									<split pos="right">
										<output> -0.19976534 </output>
									</split>
								</split>
							</split>
							<split pos="right">
								<feature> 167 </feature>
								<threshold> 0.576471 </threshold>
								<split pos="left">
									<feature> 87 </feature>
									<threshold> 0.066667 </threshold>
									<split pos="left">
										<output> 0.76163703 </output>
									</split>
									<split pos="right">
										<output> 0.039887454 </output>
									</split>
								</split>
								<split pos="right">
									<output> 1.4381909 </output>
								</split>
							</split>
						</split>
						<split pos="right">
							<output> 1.0417368 </output>
						</split>
					</split>
					<split pos="right">
						<output> 1.5213751 </output>
					</split>
				</split>
				<split pos="right">
					<output> 0.8239386 </output>
				</split>
			</split>
			<split pos="right">
				<output> 1.1618503 </output>
			</split>
		</split>
	</tree>
	<tree id="12" weight="0.1">
		<split>
			<feature> 214 </feature>
			<threshold> 0.010695077 </threshold>
			<split pos="left">
				<feature> 102 </feature>
				<threshold> 0.39407998 </threshold>
				<split pos="left">
					<feature> 56 </feature>
					<threshold> 0.992157 </threshold>
					<split pos="left">
						<feature> 205 </feature>
						<threshold> 0.13403943 </threshold>
						<split pos="left">
							<feature> 4 </feature>
							<threshold> 0.00390625 </threshold>
							<split pos="left">
								<feature> 78 </feature>
								<threshold> 0.25255677 </threshold>
								<split pos="left">
									<output> -0.50918436 </output>
								</split>
								<split pos="right">
									<feature> 183 </feature>
									<threshold> 0.98331237 </threshold>
									<split pos="left">
										<feature> 162 </feature>
										<threshold> 0.03374316 </threshold>
										<split pos="left">
											<feature> 158 </feature>
											<threshold> 0.38761947 </threshold>
											<split pos="left">
												<output> -0.097920224 </output>
											</split>
											<split pos="right">
												<output> -2.6645854 </output>
											</split>
										</split>
										<split pos="right">
											<output> 0.59145254 </output>
										</split>
									</split>
									<split pos="right">
										<output> 1.7651963 </output>
									</split>
								</split>
							</split>
							<split pos="right">
								<output> 0.25556237 </output>
							</split>
						</split>
						<split pos="right">
							<output> 1.4497855 </output>
						</split>
					</split>
					<split pos="right">
						<output> 0.88463414 </output>
					</split>
				</split>
				<split pos="right">
					<output> 0.87240356 </output>
				</split>
			</split>
			<split pos="right">
				<output> 1.353366 </output>
			</split>
		</split>
	</tree>
	<tree id="13" weight="0.1">
		<split>
			<feature> 214 </feature>
			<threshold> 0.010695077 </threshold>
			<split pos="left">
				<feature> 102 </feature>
				<threshold> 0.39407998 </threshold>
				<split pos="left">
					<feature> 4 </feature>
					<threshold> 0.00390625 </threshold>
					<split pos="left">
						<feature> 78 </feature>
						<threshold> 0.25255677 </threshold>
						<split pos="left">
							<output> -0.4786985 </output>
						</split>
						<split pos="right">
							<feature> 183 </feature>
							<threshold> 0.98331237 </threshold>
							<split pos="left">
								<feature> 162 </feature>
								<threshold> 0.03374316 </threshold>
								<split pos="left">
									<feature> 116 </feature>
									<threshold> 0.5121501 </threshold>
									<split pos="left">
										<feature> 158 </feature>
										<threshold> 0.035531808 </threshold>
										<split pos="left">
											<feature> 48 </feature>
											<threshold> 0.266667 </threshold>
											<split pos="left">
												<output> 0.025907576 </output>
											</split>
											<split pos="right">
												<output> -0.3247145 </output>
											</split>
										</split>
										<split pos="right">
											<output> 0.6973954 </output>
										</split>
									</split>
									<split pos="right">
										<output> 1.8203032 </output>
									</split>
								</split>
								<split pos="right">
									<output> 0.53276443 </output>
								</split>
							</split>
							<split pos="right">
								<output> 1.6017454 </output>
							</split>
						</split>
					</split>
					<split pos="right">
						<output> 0.287352 </output>
					</split>
				</split>
				<split pos="right">
					<output> 0.8323877 </output>
				</split>
			</split>
			<split pos="right">
				<output> 1.3179623 </output>
			</split>
		</split>
	</tree>
	<tree id="14" weight="0.1">
		<split>
			<feature> 214 </feature>
			<threshold> 0.010695077 </threshold>
			<split pos="left">
				<feature> 102 </feature>
				<threshold> 0.562048 </threshold>
				<split pos="left">
					<feature> 231 </feature>
					<threshold> 0.29699364 </threshold>
					<split pos="left">
						<feature> 205 </feature>
						<threshold> 0.13403943 </threshold>
						<split pos="left">
							<feature> 118 </feature>
							<threshold> 0.9433806 </threshold>
							<split pos="left">
								<feature> 114 </feature>
								<threshold> 0.061373204 </threshold>
								<split pos="left">
									<feature> 110 </feature>
									<threshold> 0.0 </threshold>
									<split pos="left">
										<feature> 202 </feature>
										<threshold> 3.0172657E-4 </threshold>
										<split pos="left">
											<feature> 117 </feature>
											<threshold> 0.0 </threshold>
											<split pos="left">
												<output> -0.0783409 </output>
											</split>
											<split pos="right">
												<output> -0.64822614 </output>
											</split>
										</split>
										<split pos="right">
											<output> -0.91646385 </output>
										</split>
									</split>
									<split pos="right">
										<output> 0.7899535 </output>
									</split>
								</split>
								<split pos="right">
									<output> 0.29889935 </output>
								</split>
							</split>
							<split pos="right">
								<output> -1.3561529 </output>
							</split>
						</split>
						<split pos="right">
							<output> 1.3626181 </output>
						</split>
					</split>
					<split pos="right">
						<output> 0.76961845 </output>
					</split>
				</split>
				<split pos="right">
					<output> 1.2369562 </output>
				</split>
			</split>
			<split pos="right">
				<output> 1.2742139 </output>
			</split>
		</split>
	</tree>
	<tree id="15" weight="0.1">
		<split>
			<feature> 214 </feature>
			<threshold> 0.010695077 </threshold>
			<split pos="left">
				<feature> 102 </feature>
				<threshold> 0.39407998 </threshold>
				<split pos="left">
					<feature> 231 </feature>
					<threshold> 0.18876715 </threshold>
					<split pos="left">
						<feature> 205 </feature>
						<threshold> 0.10134688 </threshold>
						<split pos="left">
							<feature> 86 </feature>
							<threshold> 0.643137 </threshold>
							<split pos="left">
								<feature> 162 </feature>
								<threshold> 0.08773222 </threshold>
								<split pos="left">
									<output> 0.08154544 </output>
								</split>
								<split pos="right">
									<output> 1.0629137 </output>
								</split>
							</split>
							<split pos="right">
								<feature> 167 </feature>
								<threshold> 0.611765 </threshold>
								<split pos="left">
									<feature> 65 </feature>
									<threshold> 0.3 </threshold>
									<split pos="left">
										<feature> 116 </feature>
										<threshold> 0.5121501 </threshold>
										<split pos="left">
											<output> -0.3021382 </output>
										</split>
										<split pos="right">
											<output> 1.6530534 </output>
										</split>
									</split>
									<split pos="right">
										<output> 0.29407817 </output>
									</split>
								</split>
								<split pos="right">
									<output> 1.3713392 </output>
								</split>
							</split>
						</split>
						<split pos="right">
							<output> 1.3180282 </output>
						</split>
					</split>
					<split pos="right">
						<output> 0.49281466 </output>
					</split>
				</split>
				<split pos="right">
					<output> 0.7582484 </output>
				</split>
			</split>
			<split pos="right">
				<output> 1.2374265 </output>
			</split>
		</split>
	</tree>
	<tree id="16" weight="0.1">
		<split>
			<feature> 214 </feature>
			<threshold> 0.010695077 </threshold>
			<split pos="left">
				<feature> 102 </feature>
				<threshold> 0.51036555 </threshold>
				<split pos="left">
					<feature> 231 </feature>
					<threshold> 0.18876715 </threshold>
					<split pos="left">
						<feature> 117 </feature>
						<threshold> 0.0 </threshold>
						<split pos="left">
							<feature> 12 </feature>
							<threshold> 0.36707172 </threshold>
							<split pos="left">
								<output> -0.60999477 </output>
							</split>
							<split pos="right">
								<feature> 86 </feature>
								<threshold> 0.643137 </threshold>
								<split pos="left">
									<feature> 162 </feature>
									<threshold> 0.08773222 </threshold>
									<split pos="left">
										<output> 0.23458096 </output>
									</split>
									<split pos="right">
										<output> 1.0524926 </output>
									</split>
								</split>
								<split pos="right">
									<feature> 167 </feature>
									<threshold> 0.611765 </threshold>
									<split pos="left">
										<feature> 205 </feature>
										<threshold> 0.0806416 </threshold>
										<split pos="left">
											<output> -0.110157244 </output>
										</split>
										<split pos="right">
											<output> 1.274316 </output>
										</split>
									</split>
									<split pos="right">
										<output> 1.2998816 </output>
									</split>
								</split>
							</split>
						</split>
						<split pos="right">
							<output> -0.61937606 </output>
						</split>
					</split>
					<split pos="right">
						<output> 0.45725217 </output>
					</split>
				</split>
				<split pos="right">
					<output> 0.99050546 </output>
				</split>
			</split>
			<split pos="right">
				<output> 1.2146974 </output>
			</split>
		</split>
	</tree>
	<tree id="17" weight="0.1">
		<split>
			<feature> 214 </feature>
			<threshold> 0.010695077 </threshold>
			<split pos="left">
				<feature> 123 </feature>
				<threshold> 0.22035114 </threshold>
				<split pos="left">
					<feature> 57 </feature>
					<threshold> 0.1701563 </threshold>
					<split pos="left">
						<feature> 78 </feature>
						<threshold> 0.69644445 </threshold>
						<split pos="left">
							<output> -0.4045593 </output>
						</split>
						<split pos="right">
							<output> 0.6647384 </output>
						</split>
					</split>
					<split pos="right">
						<feature> 173 </feature>
						<threshold> 0.25 </threshold>
						<split pos="left">
							<output> 1.4231644 </output>
						</split>
						<split pos="right">
							<feature> 154 </feature>
							<threshold> 0.0 </threshold>
							<split pos="left">
								<feature> 205 </feature>
								<threshold> 0.13403943 </threshold>
								<split pos="left">
									<feature> 95 </feature>
									<threshold> 0.0078125 </threshold>
									<split pos="left">
										<output> 0.15894896 </output>
									</split>
									<split pos="right">
										<output> -0.25758576 </output>
									</split>
								</split>
								<split pos="right">
									<output> 1.2406752 </output>
								</split>
							</split>
							<split pos="right">
								<feature> 234 </feature>
								<threshold> 0.61158615 </threshold>
								<split pos="left">
									<output> 0.22282648 </output>
								</split>
								<split pos="right">
									<output> 1.0512598 </output>
								</split>
							</split>
						</split>
					</split>
				</split>
				<split pos="right">
					<output> 0.44710264 </output>
				</split>
			</split>
			<split pos="right">
				<output> 1.1838913 </output>
			</split>
		</split>
	</tree>
	<tree id="18" weight="0.1">
		<split>
			<feature> 214 </feature>
			<threshold> 0.010695077 </threshold>
			<split pos="left">
				<feature> 31 </feature>
				<threshold> 0.22035114 </threshold>
				<split pos="left">
					<feature> 78 </feature>
					<threshold> 0.3635287 </threshold>
					<split pos="left">
						<output> -0.31861416 </output>
					</split>
					<split pos="right">
						<feature> 86 </feature>
						<threshold> 0.611765 </threshold>
						<split pos="left">
							<feature> 162 </feature>
							<threshold> 0.08773222 </threshold>
							<split pos="left">
								<output> 0.2679467 </output>
							</split>
							<split pos="right">
								<output> 0.97687703 </output>
							</split>
						</split>
						<split pos="right">
							<feature> 110 </feature>
							<threshold> 0.0 </threshold>
							<split pos="left">
								<feature> 22 </feature>
								<threshold> 5.92E-4 </threshold>
								<split pos="left">
									<feature> 106 </feature>
									<threshold> 0.952941 </threshold>
									<split pos="left">
										<feature> 72 </feature>
										<threshold> 0.39605948 </threshold>
										<split pos="left">
											<output> -0.091283835 </output>
										</split>
										<split pos="right">
											<output> 1.040356 </output>
										</split>
									</split>
									<split pos="right">
										<output> 1.6928184 </output>
									</split>
								</split>
								<split pos="right">
									<output> 2.925001 </output>
								</split>
							</split>
							<split pos="right">
								<output> 0.9721973 </output>
							</split>
						</split>
					</split>
				</split>
				<split pos="right">
					<output> 0.40735236 </output>
				</split>
			</split>
			<split pos="right">
				<output> 1.1615988 </output>
			</split>
		</split>
	</tree>
	<tree id="19" weight="0.1">
		<split>
			<feature> 214 </feature>
			<threshold> 0.010695077 </threshold>
			<split pos="left">
				<feature> 57 </feature>
				<threshold> 0.1701563 </threshold>
				<split pos="left">
					<feature> 102 </feature>
					<threshold> 0.42638153 </threshold>
					<split pos="left">
						<output> -0.31887606 </output>
					</split>
					<split pos="right">
						<output> 1.0985391 </output>
					</split>
				</split>
				<split pos="right">
					<feature> 47 </feature>
					<threshold> 0.8633169 </threshold>
					<split pos="left">
						<feature> 141 </feature>
						<threshold> 0.19411166 </threshold>
						<split pos="left">
							<feature> 173 </feature>
							<threshold> 0.25 </threshold>
							<split pos="left">
								<output> 1.3817047 </output>
							</split>
							<split pos="right">
								<feature> 158 </feature>
								<threshold> 0.058142968 </threshold>
								<split pos="left">
									<feature> 209 </feature>
									<threshold> 0.0 </threshold>
									<split pos="left">
										<output> -0.11764559 </output>
									</split>
									<split pos="right">
										<feature> 212 </feature>
										<threshold> 0.6 </threshold>
										<split pos="left">
											<output> 0.6364229 </output>
										</split>
										<split pos="right">
											<output> -0.08904322 </output>
										</split>
									</split>
								</split>
								<split pos="right">
									<output> 0.6021364 </output>
								</split>
							</split>
						</split>
						<split pos="right">
							<output> 0.7811401 </output>
						</split>
					</split>
					<split pos="right">
						<output> -2.6561737 </output>
					</split>
				</split>
			</split>
			<split pos="right">
				<output> 1.1396762 </output>
			</split>
		</split>
	</tree>
	<tree id="20" weight="0.1">
		<split>
			<feature> 214 </feature>
			<threshold> 0.010695077 </threshold>
			<split pos="left">
				<feature> 192 </feature>
				<threshold> 0.1580286 </threshold>
				<split pos="left">
					<feature> 57 </feature>
					<threshold> 0.1701563 </threshold>
					<split pos="left">
						<output> -0.31888473 </output>
					</split>
					<split pos="right">
						<feature> 231 </feature>
						<threshold> 0.18876715 </threshold>
						<split pos="left">
							<feature> 213 </feature>
							<threshold> 0.18778464 </threshold>
							<split pos="left">
								<feature> 22 </feature>
								<threshold> 5.27E-4 </threshold>
								<split pos="left">
									<feature> 169 </feature>
									<threshold> 0.08203125 </threshold>
									<split pos="left">
										<feature> 234 </feature>
										<threshold> 0.58850986 </threshold>
										<split pos="left">
											<feature> 106 </feature>
											<threshold> 0.952941 </threshold>
											<split pos="left">
												<output> 0.06251395 </output>
											</split>
											<split pos="right">
												<output> 1.6707097 </output>
											</split>
										</split>
										<split pos="right">
											<output> 0.6253507 </output>
										</split>
									</split>
									<split pos="right">
										<output> -0.2412457 </output>
									</split>
								</split>
								<split pos="right">
									<output> -2.2847872 </output>
								</split>
							</split>
							<split pos="right">
								<output> -8.039205 </output>
							</split>
						</split>
						<split pos="right">
							<output> 0.48027474 </output>
						</split>
					</split>
				</split>
				<split pos="right">
					<output> 0.68029934 </output>
				</split>
			</split>
			<split pos="right">
				<output> 1.1162101 </output>
			</split>
		</split>
	</tree>
	<tree id="21" weight="0.1">
		<split>
			<feature> 214 </feature>
			<threshold> 0.010695077 </threshold>
			<split pos="left">
				<feature> 4 </feature>
				<threshold> 0.23828125 </threshold>
				<split pos="left">
					<feature> 31 </feature>
					<threshold> 0.45049605 </threshold>
					<split pos="left">
						<feature> 12 </feature>
						<threshold> 0.46860245 </threshold>
						<split pos="left">
							<output> -0.4600769 </output>
						</split>
						<split pos="right">
							<feature> 87 </feature>
							<threshold> 0.062745 </threshold>
							<split pos="left">
								<feature> 47 </feature>
								<threshold> 0.31961185 </threshold>
								<split pos="left">
									<output> 0.267388 </output>
								</split>
								<split pos="right">
									<output> 0.991432 </output>
								</split>
							</split>
							<split pos="right">
								<feature> 16 </feature>
								<threshold> 0.101961 </threshold>
								<split pos="left">
									<output> -0.3264471 </output>
								</split>
								<split pos="right">
									<feature> 167 </feature>
									<threshold> 0.572549 </threshold>
									<split pos="left">
										<feature> 167 </feature>
										<threshold> 0.231373 </threshold>
										<split pos="left">
											<output> 0.3277415 </output>
										</split>
										<split pos="right">
											<output> -0.13057768 </output>
										</split>
									</split>
									<split pos="right">
										<output> 1.2409719 </output>
									</split>
								</split>
							</split>
						</split>
					</split>
					<split pos="right">
						<output> -1.8603208 </output>
					</split>
				</split>
				<split pos="right">
					<output> 0.83730185 </output>
				</split>
			</split>
			<split pos="right">
				<output> 1.0934252 </output>
			</split>
		</split>
	</tree>
	<tree id="22" weight="0.1">
		<split>
			<feature> 214 </feature>
			<threshold> 0.010695077 </threshold>
			<split pos="left">
				<feature> 192 </feature>
				<threshold> 0.008001453 </threshold>
				<split pos="left">
					<feature> 110 </feature>
					<threshold> 0.0 </threshold>
					<split pos="left">
						<feature> 182 </feature>
						<threshold> 0.4503716 </threshold>
						<split pos="left">
							<feature> 57 </feature>
							<threshold> 0.1701563 </threshold>
							<split pos="left">
								<output> -0.36987188 </output>
							</split>
							<split pos="right">
								<feature> 153 </feature>
								<threshold> 0.701961 </threshold>
								<split pos="left">
									<feature> 158 </feature>
									<threshold> 0.04199214 </threshold>
									<split pos="left">
										<feature> 122 </feature>
										<threshold> 0.18192476 </threshold>
										<split pos="left">
											<output> 1.0464714 </output>
										</split>
										<split pos="right">
											<output> -0.14675286 </output>
										</split>
									</split>
									<split pos="right">
										<output> 0.5842116 </output>
									</split>
								</split>
								<split pos="right">
									<output> 0.3957225 </output>
								</split>
							</split>
						</split>
						<split pos="right">
							<output> 1.1944612 </output>
						</split>
					</split>
					<split pos="right">
						<output> 0.8188058 </output>
					</split>
				</split>
				<split pos="right">
					<feature> 102 </feature>
					<threshold> 0.29717535 </threshold>
					<split pos="left">
						<output> 0.204046 </output>
					</split>
					<split pos="right">
						<output> 0.8787106 </output>
					</split>
				</split>
			</split>
			<split pos="right">
				<output> 1.0701947 </output>
			</split>
		</split>
	</tree>
	<tree id="23" weight="0.1">
		<split>
			<feature> 214 </feature>
			<threshold> 0.010695077 </threshold>
			<split pos="left">
				<feature> 4 </feature>
				<threshold> 0.00390625 </threshold>
				<split pos="left">
					<feature> 78 </feature>
					<threshold> 0.25255677 </threshold>
					<split pos="left">
						<output> -0.4028134 </output>
					</split>
					<split pos="right">
						<feature> 183 </feature>
						<threshold> 0.9872144 </threshold>
						<split pos="left">
							<feature> 29 </feature>
							<threshold> 0.019510038 </threshold>
							<split pos="left">
								<output> 0.9876938 </output>
							</split>
							<split pos="right">
								<feature> 153 </feature>
								<threshold> 0.65098 </threshold>
								<split pos="left">
									<feature> 102 </feature>
									<threshold> 0.31978643 </threshold>
									<split pos="left">
										<feature> 223 </feature>
										<threshold> 0.80349666 </threshold>
										<split pos="left">
											<feature> 151 </feature>
											<threshold> 0.26021 </threshold>
											<split pos="left">
												<output> 1.1813376 </output>
											</split>
											<split pos="right">
												<output> -0.1553112 </output>
											</split>
										</split>
										<split pos="right">
											<output> 0.6630185 </output>
										</split>
									</split>
									<split pos="right">
										<output> 0.66860104 </output>
									</split>
								</split>
								<split pos="right">
									<output> 0.33183545 </output>
								</split>
							</split>
						</split>
						<split pos="right">
							<output> 1.3804178 </output>
						</split>
					</split>
				</split>
				<split pos="right">
					<output> 0.26617068 </output>
				</split>
			</split>
			<split pos="right">
				<output> 1.0511919 </output>
			</split>
		</split>
	</tree>
	<tree id="24" weight="0.1">
		<split>
			<feature> 141 </feature>
			<threshold> 0.19411166 </threshold>
			<split pos="left">
				<feature> 12 </feature>
				<threshold> 0.47250748 </threshold>
				<split pos="left">
					<output> -0.41412026 </output>
				</split>
				<split pos="right">
					<feature> 86 </feature>
					<threshold> 0.643137 </threshold>
					<split pos="left">
						<feature> 162 </feature>
						<threshold> 0.08773222 </threshold>
						<split pos="left">
							<feature> 154 </feature>
							<threshold> 0.0 </threshold>
							<split pos="left">
								<output> 0.15777361 </output>
							</split>
							<split pos="right">
								<output> 0.68938226 </output>
							</split>
						</split>
						<split pos="right">
							<output> 0.9011025 </output>
						</split>
					</split>
					<split pos="right">
						<feature> 167 </feature>
						<threshold> 0.611765 </threshold>
						<split pos="left">
							<feature> 101 </feature>
							<threshold> 0.08203125 </threshold>
							<split pos="left">
								<output> -0.29643464 </output>
							</split>
							<split pos="right">
								<feature> 35 </feature>
								<threshold> 0.031973414 </threshold>
								<split pos="left">
									<feature> 216 </feature>
									<threshold> 0.0 </threshold>
									<split pos="left">
										<output> 0.09809307 </output>
									</split>
									<split pos="right">
										<output> 0.8203756 </output>
									</split>
								</split>
								<split pos="right">
									<output> 1.3509692 </output>
								</split>
							</split>
						</split>
						<split pos="right">
							<output> 1.2455534 </output>
						</split>
					</split>
				</split>
			</split>
			<split pos="right">
				<output> 0.6441866 </output>
			</split>
		</split>
	</tree>
	<tree id="25" weight="0.1">
		<split>
			<feature> 192 </feature>
			<threshold> 0.1580286 </threshold>
			<split pos="left">
				<feature> 102 </feature>
				<threshold> 0.7332462 </threshold>
				<split pos="left">
					<feature> 162 </feature>
					<threshold> 0.0033743165 </threshold>
					<split pos="left">
						<feature> 44 </feature>
						<threshold> 0.484375 </threshold>
						<split pos="left">
							<feature> 182 </feature>
							<threshold> 0.055760138 </threshold>
							<split pos="left">
								<feature> 182 </feature>
								<threshold> 0.053615518 </threshold>
								<split pos="left">
									<feature> 154 </feature>
									<threshold> 0.0 </threshold>
									<split pos="left">
										<feature> 205 </feature>
										<threshold> 0.06810945 </threshold>
										<split pos="left">
											<feature> 5 </feature>
											<threshold> 0.0 </threshold>
											<split pos="left">
												<output> -0.3429503 </output>
											</split>
											<split pos="right">
												<output> 0.043987595 </output>
											</split>
										</split>
										<split pos="right">
											<output> -3.0790446 </output>
										</split>
									</split>
									<split pos="right">
										<output> 0.15643384 </output>
									</split>
								</split>
								<split pos="right">
									<output> -1.7367054 </output>
								</split>
							</split>
							<split pos="right">
								<output> 0.24937087 </output>
							</split>
						</split>
						<split pos="right">
							<output> -5.7265773 </output>
						</split>
					</split>
					<split pos="right">
						<output> 0.24171689 </output>
					</split>
				</split>
				<split pos="right">
					<output> 1.1032072 </output>
				</split>
			</split>
			<split pos="right">
				<output> 0.66257983 </output>
			</split>
		</split>
	</tree>
	<tree id="26" weight="0.1">
		<split>
			<feature> 102 </feature>
			<threshold> 0.51036555 </threshold>
			<split pos="left">
				<feature> 192 </feature>
				<threshold> 0.16202933 </threshold>
				<split pos="left">
					<feature> 57 </feature>
					<threshold> 0.1701563 </threshold>
					<split pos="left">
						<output> -0.2745186 </output>
					</split>
					<split pos="right">
						<feature> 153 </feature>
						<threshold> 0.996078 </threshold>
						<split pos="left">
							<feature> 243 </feature>
							<threshold> 0.733333 </threshold>
							<split pos="left">
								<feature> 209 </feature>
								<threshold> 0.0 </threshold>
								<split pos="left">
									<feature> 231 </feature>
									<threshold> 0.13842924 </threshold>
									<split pos="left">
										<output> -0.19728883 </output>
									</split>
									<split pos="right">
										<output> 0.37912726 </output>
									</split>
								</split>
								<split pos="right">
									<feature> 212 </feature>
									<threshold> 0.407843 </threshold>
									<split pos="left">
										<output> 0.7146052 </output>
									</split>
									<split pos="right">
										<feature> 167 </feature>
										<threshold> 0.6 </threshold>
										<split pos="left">
											<output> 0.076924995 </output>
										</split>
										<split pos="right">
											<output> 1.1787945 </output>
										</split>
									</split>
								</split>
							</split>
							<split pos="right">
								<output> -0.68381876 </output>
							</split>
						</split>
						<split pos="right">
							<output> 1.3172883 </output>
						</split>
					</split>
				</split>
				<split pos="right">
					<output> 0.5862783 </output>
				</split>
			</split>
			<split pos="right">
				<output> 0.9650294 </output>
			</split>
		</split>
	</tree>
	<tree id="27" weight="0.1">
		<split>
			<feature> 141 </feature>
			<threshold> 0.19411166 </threshold>
			<split pos="left">
				<feature> 12 </feature>
				<threshold> 0.36707172 </threshold>
				<split pos="left">
					<output> -0.5265412 </output>
				</split>
				<split pos="right">
					<feature> 183 </feature>
					<threshold> 0.9911164 </threshold>
					<split pos="left">
						<feature> 87 </feature>
						<threshold> 0.066667 </threshold>
						<split pos="left">
							<feature> 6 </feature>
							<threshold> 0.15855822 </threshold>
							<split pos="left">
								<feature> 47 </feature>
								<threshold> 0.49962327 </threshold>
								<split pos="left">
									<output> 0.16233875 </output>
								</split>
								<split pos="right">
									<output> 1.9251441 </output>
								</split>
							</split>
							<split pos="right">
								<output> 0.86257887 </output>
							</split>
						</split>
						<split pos="right">
							<feature> 16 </feature>
							<threshold> 0.141176 </threshold>
							<split pos="left">
								<output> -0.26211235 </output>
							</split>
							<split pos="right">
								<feature> 34 </feature>
								<threshold> 0.34070978 </threshold>
								<split pos="left">
									<feature> 19 </feature>
									<threshold> 0.988235 </threshold>
									<split pos="left">
										<output> 0.2687132 </output>
									</split>
									<split pos="right">
										<output> -0.17832716 </output>
									</split>
								</split>
								<split pos="right">
									<output> 1.048989 </output>
								</split>
							</split>
						</split>
					</split>
					<split pos="right">
						<output> 1.2739897 </output>
					</split>
				</split>
			</split>
			<split pos="right">
				<output> 0.6064453 </output>
			</split>
		</split>
	</tree>
	<tree id="28" weight="0.1">
		<split>
			<feature> 4 </feature>
			<threshold> 0.25 </threshold>
			<split pos="left">
				<feature> 22 </feature>
				<threshold> 2.63E-4 </threshold>
				<split pos="left">
					<feature> 51 </feature>
					<threshold> 0.5302406 </threshold>
					<split pos="left">
						<feature> 51 </feature>
						<threshold> 0.4974425 </threshold>
						<split pos="left">
							<feature> 154 </feature>
							<threshold> 0.0 </threshold>
							<split pos="left">
								<feature> 182 </feature>
								<threshold> 0.03216932 </threshold>
								<split pos="left">
									<feature> 160 </feature>
									<threshold> 0.50163287 </threshold>
									<split pos="left">
										<feature> 162 </feature>
										<threshold> 0.006748633 </threshold>
										<split pos="left">
											<feature> 16 </feature>
											<threshold> 0.368627 </threshold>
											<split pos="left">
												<output> -0.2776042 </output>
											</split>
											<split pos="right">
												<output> 0.35483316 </output>
											</split>
										</split>
										<split pos="right">
											<output> 0.2634346 </output>
										</split>
									</split>
									<split pos="right">
										<output> -3.37968 </output>
									</split>
								</split>
								<split pos="right">
									<output> 0.19089532 </output>
								</split>
							</split>
							<split pos="right">
								<output> 0.19666633 </output>
							</split>
						</split>
						<split pos="right">
							<output> 1.1990184 </output>
						</split>
					</split>
					<split pos="right">
						<output> -1.2838883 </output>
					</split>
				</split>
				<split pos="right">
					<output> 0.9554694 </output>
				</split>
			</split>
			<split pos="right">
				<output> 0.77963364 </output>
			</split>
		</split>
	</tree>
	<tree id="29" weight="0.1">
		<split>
			<feature> 192 </feature>
			<threshold> 0.1580286 </threshold>
			<split pos="left">
				<feature> 102 </feature>
				<threshold> 0.7332462 </threshold>
				<split pos="left">
					<feature> 57 </feature>
					<threshold> 0.081210926 </threshold>
					<split pos="left">
						<output> -0.2717796 </output>
					</split>
					<split pos="right">
						<feature> 223 </feature>
						<threshold> 0.80349666 </threshold>
						<split pos="left">
							<feature> 22 </feature>
							<threshold> 6.33E-4 </threshold>
							<split pos="left">
								<feature> 154 </feature>
								<threshold> 0.0 </threshold>
								<split pos="left">
									<feature> 209 </feature>
									<threshold> 0.0 </threshold>
									<split pos="left">
										<output> -0.23141335 </output>
									</split>
									<split pos="right">
										<feature> 212 </feature>
										<threshold> 0.388235 </threshold>
										<split pos="left">
											<output> 0.66924727 </output>
										</split>
										<split pos="right">
											<output> -0.07456304 </output>
										</split>
									</split>
								</split>
								<split pos="right">
									<feature> 212 </feature>
									<threshold> 0.062745 </threshold>
									<split pos="left">
										<output> 1.412811 </output>
									</split>
									<split pos="right">
										<output> 0.21031818 </output>
									</split>
								</split>
							</split>
							<split pos="right">
								<output> 2.369523 </output>
							</split>
						</split>
						<split pos="right">
							<output> 0.60007626 </output>
						</split>
					</split>
				</split>
				<split pos="right">
					<output> 1.0911571 </output>
				</split>
			</split>
			<split pos="right">
				<output> 0.5988317 </output>
			</split>
		</split>
	</tree>
	<tree id="30" weight="0.1">
		<split>
			<feature> 141 </feature>
			<threshold> 0.19411166 </threshold>
			<split pos="left">
				<feature> 12 </feature>
				<threshold> 0.47250748 </threshold>
				<split pos="left">
					<output> -0.3470198 </output>
				</split>
				<split pos="right">
					<feature> 86 </feature>
					<threshold> 0.643137 </threshold>
					<split pos="left">
						<feature> 186 </feature>
						<threshold> 0.909804 </threshold>
						<split pos="left">
							<feature> 65 </feature>
							<threshold> 0.7 </threshold>
							<split pos="left">
								<feature> 32 </feature>
								<threshold> 0.086374514 </threshold>
								<split pos="left">
									<output> 0.014538071 </output>
								</split>
								<split pos="right">
									<output> 0.53607184 </output>
								</split>
							</split>
							<split pos="right">
								<output> 2.1295936 </output>
							</split>
						</split>
						<split pos="right">
							<output> 1.0148417 </output>
						</split>
					</split>
					<split pos="right">
						<feature> 167 </feature>
						<threshold> 0.611765 </threshold>
						<split pos="left">
							<feature> 101 </feature>
							<threshold> 0.0625 </threshold>
							<split pos="left">
								<output> -0.26370627 </output>
							</split>
							<split pos="right">
								<feature> 198 </feature>
								<threshold> 0.56597507 </threshold>
								<split pos="left">
									<output> 0.11242706 </output>
								</split>
								<split pos="right">
									<output> 1.3206813 </output>
								</split>
							</split>
						</split>
						<split pos="right">
							<output> 1.2057804 </output>
						</split>
					</split>
				</split>
			</split>
			<split pos="right">
				<output> 0.56479084 </output>
			</split>
		</split>
	</tree>
	<tree id="31" weight="0.1">
		<split>
			<feature> 192 </feature>
			<threshold> 0.1580286 </threshold>
			<split pos="left">
				<feature> 158 </feature>
				<threshold> 0.5781986 </threshold>
				<split pos="left">
					<feature> 223 </feature>
					<threshold> 0.80349666 </threshold>
					<split pos="left">
						<feature> 65 </feature>
						<threshold> 0.3 </threshold>
						<split pos="left">
							<feature> 48 </feature>
							<threshold> 0.262745 </threshold>
							<split pos="left">
								<feature> 32 </feature>
								<threshold> 0.24410209 </threshold>
								<split pos="left">
									<feature> 179 </feature>
									<threshold> 0.980392 </threshold>
									<split pos="left">
										<feature> 52 </feature>
										<threshold> 0.499072 </threshold>
										<split pos="left">
											<feature> 75 </feature>
											<threshold> 0.701961 </threshold>
											<split pos="left">
												<output> -0.10981226 </output>
											</split>
											<split pos="right">
												<output> 1.6602391 </output>
											</split>
										</split>
										<split pos="right">
											<output> 1.7229848 </output>
										</split>
									</split>
									<split pos="right">
										<output> -3.7527359 </output>
									</split>
								</split>
								<split pos="right">
									<output> 0.40779102 </output>
								</split>
							</split>
							<split pos="right">
								<output> -0.2412301 </output>
							</split>
						</split>
						<split pos="right">
							<output> 0.30929112 </output>
						</split>
					</split>
					<split pos="right">
						<output> 0.5181586 </output>
					</split>
				</split>
				<split pos="right">
					<output> 1.0443418 </output>
				</split>
			</split>
			<split pos="right">
				<output> 0.5527402 </output>
			</split>
		</split>
	</tree>
	<tree id="32" weight="0.1">
		<split>
			<feature> 192 </feature>
			<threshold> 0.1580286 </threshold>
			<split pos="left">
				<feature> 78 </feature>
				<threshold> 0.3214359 </threshold>
				<split pos="left">
					<feature> 190 </feature>
					<threshold> 1.8E-5 </threshold>
					<split pos="left">
						<output> -0.19435292 </output>
					</split>
					<split pos="right">
						<output> -1.5075915 </output>
					</split>
				</split>
				<split pos="right">
					<feature> 223 </feature>
					<threshold> 0.80349666 </threshold>
					<split pos="left">
						<feature> 153 </feature>
						<threshold> 0.647059 </threshold>
						<split pos="left">
							<feature> 4 </feature>
							<threshold> 0.14453125 </threshold>
							<split pos="left">
								<feature> 22 </feature>
								<threshold> 6.33E-4 </threshold>
								<split pos="left">
									<feature> 153 </feature>
									<threshold> 0.070588 </threshold>
									<split pos="left">
										<output> 0.115649775 </output>
									</split>
									<split pos="right">
										<feature> 192 </feature>
										<threshold> 0.15602824 </threshold>
										<split pos="left">
											<output> -0.22497788 </output>
										</split>
										<split pos="right">
											<output> -3.2909408 </output>
										</split>
									</split>
								</split>
								<split pos="right">
									<output> 2.2610593 </output>
								</split>
							</split>
							<split pos="right">
								<output> 0.5979401 </output>
							</split>
						</split>
						<split pos="right">
							<output> 0.3237583 </output>
						</split>
					</split>
					<split pos="right">
						<output> 0.64339685 </output>
					</split>
				</split>
			</split>
			<split pos="right">
				<output> 0.5178455 </output>
			</split>
		</split>
	</tree>
	<tree id="33" weight="0.1">
		<split>
			<feature> 141 </feature>
			<threshold> 0.19411166 </threshold>
			<split pos="left">
				<feature> 14 </feature>
				<threshold> 0.62827665 </threshold>
				<split pos="left">
					<feature> 209 </feature>
					<threshold> 0.0 </threshold>
					<split pos="left">
						<output> -0.33215526 </output>
					</split>
					<split pos="right">
						<feature> 234 </feature>
						<threshold> 0.60664123 </threshold>
						<split pos="left">
							<output> -0.078262575 </output>
						</split>
						<split pos="right">
							<output> 0.66598505 </output>
						</split>
					</split>
				</split>
				<split pos="right">
					<feature> 35 </feature>
					<threshold> 0.031973414 </threshold>
					<split pos="left">
						<feature> 114 </feature>
						<threshold> 0.17119896 </threshold>
						<split pos="left">
							<feature> 182 </feature>
							<threshold> 0.45251623 </threshold>
							<split pos="left">
								<feature> 65 </feature>
								<threshold> 0.3 </threshold>
								<split pos="left">
									<feature> 52 </feature>
									<threshold> 0.5092498 </threshold>
									<split pos="left">
										<output> -0.013389321 </output>
									</split>
									<split pos="right">
										<output> 2.0451179 </output>
									</split>
								</split>
								<split pos="right">
									<output> 0.49916935 </output>
								</split>
							</split>
							<split pos="right">
								<output> 1.1408402 </output>
							</split>
						</split>
						<split pos="right">
							<output> 0.48681194 </output>
						</split>
					</split>
					<split pos="right">
						<output> 1.3194506 </output>
					</split>
				</split>
			</split>
			<split pos="right">
				<output> 0.5212492 </output>
			</split>
		</split>
	</tree>
	<tree id="34" weight="0.1">
		<split>
			<feature> 22 </feature>
			<threshold> 2.54E-4 </threshold>
			<split pos="left">
				<feature> 59 </feature>
				<threshold> 0.938272 </threshold>
				<split pos="left">
					<feature> 14 </feature>
					<threshold> 0.53462106 </threshold>
					<split pos="left">
						<feature> 78 </feature>
						<threshold> 0.35587546 </threshold>
						<split pos="left">
							<output> -0.3953112 </output>
						</split>
						<split pos="right">
							<output> 0.0012925814 </output>
						</split>
					</split>
					<split pos="right">
						<feature> 114 </feature>
						<threshold> 0.1679688 </threshold>
						<split pos="left">
							<feature> 9 </feature>
							<threshold> 0.6908018 </threshold>
							<split pos="left">
								<feature> 106 </feature>
								<threshold> 0.94902 </threshold>
								<split pos="left">
									<feature> 166 </feature>
									<threshold> 0.02054 </threshold>
									<split pos="left">
										<output> -0.6798516 </output>
									</split>
									<split pos="right">
										<feature> 167 </feature>
										<threshold> 0.501961 </threshold>
										<split pos="left">
											<output> 0.098433845 </output>
										</split>
										<split pos="right">
											<output> 0.8578344 </output>
										</split>
									</split>
								</split>
								<split pos="right">
									<output> 1.0971721 </output>
								</split>
							</split>
							<split pos="right">
								<output> -0.55851275 </output>
							</split>
						</split>
						<split pos="right">
							<output> 0.4109824 </output>
						</split>
					</split>
				</split>
				<split pos="right">
					<output> 1.0426097 </output>
				</split>
			</split>
			<split pos="right">
				<output> 0.8601509 </output>
			</split>
		</split>
	</tree>
	<tree id="35" weight="0.1">
		<split>
			<feature> 141 </feature>
			<threshold> 0.20432806 </threshold>
			<split pos="left">
				<feature> 129 </feature>
				<threshold> 0.792157 </threshold>
				<split pos="left">
					<feature> 196 </feature>
					<threshold> 0.0 </threshold>
					<split pos="left">
						<feature> 158 </feature>
						<threshold> 0.035531808 </threshold>
						<split pos="left">
							<feature> 155 </feature>
							<threshold> 0.79737043 </threshold>
							<split pos="left">
								<feature> 75 </feature>
								<threshold> 0.807843 </threshold>
								<split pos="left">
									<feature> 16 </feature>
									<threshold> 0.356863 </threshold>
									<split pos="left">
										<feature> 154 </feature>
										<threshold> 0.913725 </threshold>
										<split pos="left">
											<output> -0.24479349 </output>
										</split>
										<split pos="right">
											<output> 1.1034838 </output>
										</split>
									</split>
									<split pos="right">
										<output> 0.3401427 </output>
									</split>
								</split>
								<split pos="right">
									<output> -3.627444 </output>
								</split>
							</split>
							<split pos="right">
								<output> 0.40957743 </output>
							</split>
						</split>
						<split pos="right">
							<output> 0.76480985 </output>
						</split>
					</split>
					<split pos="right">
						<feature> 87 </feature>
						<threshold> 0.066667 </threshold>
						<split pos="left">
							<output> 0.39049497 </output>
						</split>
						<split pos="right">
							<output> -0.0209623 </output>
						</split>
					</split>
				</split>
				<split pos="right">
					<output> -2.1660297 </output>
				</split>
			</split>
			<split pos="right">
				<output> 0.48429844 </output>
			</split>
		</split>
	</tree>
	<tree id="36" weight="0.1">
		<split>
			<feature> 14 </feature>
			<threshold> 0.62827665 </threshold>
			<split pos="left">
				<feature> 209 </feature>
				<threshold> 0.0 </threshold>
				<split pos="left">
					<output> -0.3129157 </output>
				</split>
				<split pos="right">
					<feature> 212 </feature>
					<threshold> 0.082353 </threshold>
					<split pos="left">
						<output> 1.089337 </output>
					</split>
					<split pos="right">
						<feature> 234 </feature>
						<threshold> 0.60664123 </threshold>
						<split pos="left">
							<output> -0.10477739 </output>
						</split>
						<split pos="right">
							<output> 0.637138 </output>
						</split>
					</split>
				</split>
			</split>
			<split pos="right">
				<feature> 4 </feature>
				<threshold> 0.00390625 </threshold>
				<split pos="left">
					<feature> 106 </feature>
					<threshold> 0.94902 </threshold>
					<split pos="left">
						<feature> 6 </feature>
						<threshold> 0.5576882 </threshold>
						<split pos="left">
							<feature> 65 </feature>
							<threshold> 0.3 </threshold>
							<split pos="left">
								<feature> 52 </feature>
								<threshold> 0.5092498 </threshold>
								<split pos="left">
									<output> -0.037730854 </output>
								</split>
								<split pos="right">
									<output> 1.5939825 </output>
								</split>
							</split>
							<split pos="right">
								<output> 0.5562749 </output>
							</split>
						</split>
						<split pos="right">
							<output> -3.7693264 </output>
						</split>
					</split>
					<split pos="right">
						<output> 1.1469144 </output>
					</split>
				</split>
				<split pos="right">
					<output> 0.37834877 </output>
				</split>
			</split>
		</split>
	</tree>
	<tree id="37" weight="0.1">
		<split>
			<feature> 10 </feature>
			<threshold> 0.24392658 </threshold>
			<split pos="left">
				<feature> 182 </feature>
				<threshold> 0.45895013 </threshold>
				<split pos="left">
					<feature> 218 </feature>
					<threshold> 0.71777344 </threshold>
					<split pos="left">
						<feature> 78 </feature>
						<threshold> 0.25255677 </threshold>
						<split pos="left">
							<output> -0.25554308 </output>
						</split>
						<split pos="right">
							<feature> 183 </feature>
							<threshold> 0.98331237 </threshold>
							<split pos="left">
								<feature> 153 </feature>
								<threshold> 0.647059 </threshold>
								<split pos="left">
									<feature> 4 </feature>
									<threshold> 0.14453125 </threshold>
									<split pos="left">
										<feature> 151 </feature>
										<threshold> 0.26021 </threshold>
										<split pos="left">
											<output> 1.175566 </output>
										</split>
										<split pos="right">
											<feature> 8 </feature>
											<threshold> 0.74236387 </threshold>
											<split pos="left">
												<output> -0.16467251 </output>
											</split>
											<split pos="right">
												<output> 0.14286721 </output>
											</split>
										</split>
									</split>
									<split pos="right">
										<output> 0.5275637 </output>
									</split>
								</split>
								<split pos="right">
									<output> 0.29243892 </output>
								</split>
							</split>
							<split pos="right">
								<output> 1.1370937 </output>
							</split>
						</split>
					</split>
					<split pos="right">
						<output> -2.0193086 </output>
					</split>
				</split>
				<split pos="right">
					<output> 0.8173099 </output>
				</split>
			</split>
			<split pos="right">
				<output> 0.5875523 </output>
			</split>
		</split>
	</tree>
	<tree id="38" weight="0.1">
		<split>
			<feature> 22 </feature>
			<threshold> 2.54E-4 </threshold>
			<split pos="left">
				<feature> 59 </feature>
				<threshold> 0.938272 </threshold>
				<split pos="left">
					<feature> 12 </feature>
					<threshold> 0.3631667 </threshold>
					<split pos="left">
						<output> -0.43620744 </output>
					</split>
					<split pos="right">
						<feature> 183 </feature>
						<threshold> 0.9911164 </threshold>
						<split pos="left">
							<feature> 153 </feature>
							<threshold> 0.647059 </threshold>
							<split pos="left">
								<feature> 211 </feature>
								<threshold> 0.972549 </threshold>
								<split pos="left">
									<feature> 223 </feature>
									<threshold> 0.80349666 </threshold>
									<split pos="left">
										<feature> 87 </feature>
										<threshold> 0.062745 </threshold>
										<split pos="left">
											<output> 0.26907283 </output>
										</split>
										<split pos="right">
											<feature> 56 </feature>
											<threshold> 0.52549 </threshold>
											<split pos="left">
												<output> -0.25504008 </output>
											</split>
											<split pos="right">
												<output> 0.21450077 </output>
											</split>
										</split>
									</split>
									<split pos="right">
										<output> 0.78862226 </output>
									</split>
								</split>
								<split pos="right">
									<output> -0.18549618 </output>
								</split>
							</split>
							<split pos="right">
								<output> 0.25260058 </output>
							</split>
						</split>
						<split pos="right">
							<output> 1.1393055 </output>
						</split>
					</split>
				</split>
				<split pos="right">
					<output> 1.0037395 </output>
				</split>
			</split>
			<split pos="right">
				<output> 0.7946053 </output>
			</split>
		</split>
	</tree>
	<tree id="39" weight="0.1">
		<split>
			<feature> 10 </feature>
			<threshold> 0.24392658 </threshold>
			<split pos="left">
				<feature> 6 </feature>
				<threshold> 0.4100648 </threshold>
				<split pos="left">
					<feature> 129 </feature>
					<threshold> 0.792157 </threshold>
					<split pos="left">
						<feature> 12 </feature>
						<threshold> 0.3631667 </threshold>
						<split pos="left">
							<output> -0.42328948 </output>
						</split>
						<split pos="right">
							<feature> 48 </feature>
							<threshold> 0.262745 </threshold>
							<split pos="left">
								<feature> 32 </feature>
								<threshold> 0.60086626 </threshold>
								<split pos="left">
									<feature> 39 </feature>
									<threshold> 0.913725 </threshold>
									<split pos="left">
										<feature> 44 </feature>
										<threshold> 0.0390625 </threshold>
										<split pos="left">
											<feature> 47 </feature>
											<threshold> 0.16164266 </threshold>
											<split pos="left">
												<output> 0.096473925 </output>
											</split>
											<split pos="right">
												<output> -0.5117532 </output>
											</split>
										</split>
										<split pos="right">
											<output> 0.627926 </output>
										</split>
									</split>
									<split pos="right">
										<output> 1.5683732 </output>
									</split>
								</split>
								<split pos="right">
									<output> 0.72571874 </output>
								</split>
							</split>
							<split pos="right">
								<output> -0.12059032 </output>
							</split>
						</split>
					</split>
					<split pos="right">
						<output> -1.9230391 </output>
					</split>
				</split>
				<split pos="right">
					<output> 1.0793791 </output>
				</split>
			</split>
			<split pos="right">
				<output> 0.51785004 </output>
			</split>
		</split>
	</tree>
	<tree id="40" weight="0.1">
		<split>
			<feature> 14 </feature>
			<threshold> 0.53462106 </threshold>
			<split pos="left">
				<feature> 212 </feature>
				<threshold> 0.070588 </threshold>
				<split pos="left">
					<output> 0.82907677 </output>
				</split>
				<split pos="right">
					<feature> 16 </feature>
					<threshold> 0.364706 </threshold>
					<split pos="left">
						<feature> 48 </feature>
						<threshold> 0.266667 </threshold>
						<split pos="left">
							<feature> 182 </feature>
							<threshold> 0.48683038 </threshold>
							<split pos="left">
								<feature> 234 </feature>
								<threshold> 0.5769717 </threshold>
								<split pos="left">
									<output> -0.1906998 </output>
								</split>
								<split pos="right">
									<output> 0.4106146 </output>
								</split>
							</split>
							<split pos="right">
								<output> -3.377641 </output>
							</split>
						</split>
						<split pos="right">
							<output> -0.3694818 </output>
						</split>
					</split>
					<split pos="right">
						<output> 0.4357376 </output>
					</split>
				</split>
			</split>
			<split pos="right">
				<feature> 102 </feature>
				<threshold> 0.47483385 </threshold>
				<split pos="left">
					<feature> 101 </feature>
					<threshold> 0.99609375 </threshold>
					<split pos="left">
						<feature> 87 </feature>
						<threshold> 0.07451 </threshold>
						<split pos="left">
							<output> 0.30519867 </output>
						</split>
						<split pos="right">
							<output> 0.0076661534 </output>
						</split>
					</split>
					<split pos="right">
						<output> -0.3830329 </output>
					</split>
				</split>
				<split pos="right">
					<output> 0.9419122 </output>
				</split>
			</split>
		</split>
	</tree>
	<tree id="41" weight="0.1">
		<split>
			<feature> 192 </feature>
			<threshold> 0.14202571 </threshold>
			<split pos="left">
				<feature> 16 </feature>
				<threshold> 0.082353 </threshold>
				<split pos="left">
					<output> -0.20204887 </output>
				</split>
				<split pos="right">
					<feature> 167 </feature>
					<threshold> 0.611765 </threshold>
					<split pos="left">
						<feature> 192 </feature>
						<threshold> 0.11602101 </threshold>
						<split pos="left">
							<feature> 119 </feature>
							<threshold> 0.0 </threshold>
							<split pos="left">
								<output> -0.14477961 </output>
							</split>
							<split pos="right">
								<feature> 153 </feature>
								<threshold> 0.647059 </threshold>
								<split pos="left">
									<feature> 16 </feature>
									<threshold> 0.403922 </threshold>
									<split pos="left">
										<feature> 96 </feature>
										<threshold> 0.141176 </threshold>
										<split pos="left">
											<feature> 245 </feature>
											<threshold> 0.878431 </threshold>
											<split pos="left">
												<output> -0.30407917 </output>
											</split>
											<split pos="right">
												<output> 0.146852 </output>
											</split>
										</split>
										<split pos="right">
											<output> 1.5387965 </output>
										</split>
									</split>
									<split pos="right">
										<output> 0.6074737 </output>
									</split>
								</split>
								<split pos="right">
									<output> 0.4426579 </output>
								</split>
							</split>
						</split>
						<split pos="right">
							<output> -0.74460465 </output>
						</split>
					</split>
					<split pos="right">
						<output> 1.1785653 </output>
					</split>
				</split>
			</split>
			<split pos="right">
				<output> 0.3952781 </output>
			</split>
		</split>
	</tree>
	<tree id="42" weight="0.1">
		<split>
			<feature> 22 </feature>
			<threshold> 2.54E-4 </threshold>
			<split pos="left">
				<feature> 16 </feature>
				<threshold> 0.372549 </threshold>
				<split pos="left">
					<feature> 182 </feature>
					<threshold> 0.01930159 </threshold>
					<split pos="left">
						<feature> 225 </feature>
						<threshold> 0.560784 </threshold>
						<split pos="left">
							<feature> 94 </feature>
							<threshold> 0.571429 </threshold>
							<split pos="left">
								<output> -0.39370546 </output>
							</split>
							<split pos="right">
								<feature> 179 </feature>
								<threshold> 0.905882 </threshold>
								<split pos="left">
									<feature> 86 </feature>
									<threshold> 0.980392 </threshold>
									<split pos="left">
										<feature> 34 </feature>
										<threshold> 0.0034766328 </threshold>
										<split pos="left">
											<feature> 212 </feature>
											<threshold> 0.082353 </threshold>
											<split pos="left">
												<output> 0.76678944 </output>
											</split>
											<split pos="right">
												<output> -0.07288328 </output>
											</split>
										</split>
										<split pos="right">
											<output> 0.4792672 </output>
										</split>
									</split>
									<split pos="right">
										<output> -0.25477698 </output>
									</split>
								</split>
								<split pos="right">
									<output> 0.42858207 </output>
								</split>
							</split>
						</split>
						<split pos="right">
							<output> 1.7597724 </output>
						</split>
					</split>
					<split pos="right">
						<output> 0.17830695 </output>
					</split>
				</split>
				<split pos="right">
					<output> 0.3748954 </output>
				</split>
			</split>
			<split pos="right">
				<output> 0.7611888 </output>
			</split>
		</split>
	</tree>
	<tree id="43" weight="0.1">
		<split>
			<feature> 190 </feature>
			<threshold> 9.9E-5 </threshold>
			<split pos="left">
				<feature> 179 </feature>
				<threshold> 0.921569 </threshold>
				<split pos="left">
					<feature> 48 </feature>
					<threshold> 0.262745 </threshold>
					<split pos="left">
						<feature> 32 </feature>
						<threshold> 0.24410209 </threshold>
						<split pos="left">
							<feature> 167 </feature>
							<threshold> 0.705882 </threshold>
							<split pos="left">
								<feature> 101 </feature>
								<threshold> 0.16796875 </threshold>
								<split pos="left">
									<output> -0.13463539 </output>
								</split>
								<split pos="right">
									<output> 0.20088065 </output>
								</split>
							</split>
							<split pos="right">
								<output> -2.3848965 </output>
							</split>
						</split>
						<split pos="right">
							<output> 0.31788373 </output>
						</split>
					</split>
					<split pos="right">
						<feature> 102 </feature>
						<threshold> 0.31978643 </threshold>
						<split pos="left">
							<feature> 146 </feature>
							<threshold> 0.7758789 </threshold>
							<split pos="left">
								<feature> 22 </feature>
								<threshold> 5.82E-4 </threshold>
								<split pos="left">
									<output> -0.25056586 </output>
								</split>
								<split pos="right">
									<output> 2.06933 </output>
								</split>
							</split>
							<split pos="right">
								<output> 1.4588494 </output>
							</split>
						</split>
						<split pos="right">
							<output> 0.5824698 </output>
						</split>
					</split>
				</split>
				<split pos="right">
					<output> 0.30176395 </output>
				</split>
			</split>
			<split pos="right">
				<output> 0.72038066 </output>
			</split>
		</split>
	</tree>
	<tree id="44" weight="0.1">
		<split>
			<feature> 4 </feature>
			<threshold> 0.00390625 </threshold>
			<split pos="left">
				<feature> 8 </feature>
				<threshold> 0.7882833 </threshold>
				<split pos="left">
					<feature> 182 </feature>
					<threshold> 0.4503716 </threshold>
					<split pos="left">
						<feature> 5 </feature>
						<threshold> 0.0 </threshold>
						<split pos="left">
							<feature> 65 </feature>
							<threshold> 0.8 </threshold>
							<split pos="left">
								<feature> 231 </feature>
								<threshold> 0.38760188 </threshold>
								<split pos="left">
									<feature> 16 </feature>
									<threshold> 0.364706 </threshold>
									<split pos="left">
										<feature> 179 </feature>
										<threshold> 0.968627 </threshold>
										<split pos="left">
											<feature> 57 </feature>
											<threshold> 0.78504026 </threshold>
											<split pos="left">
												<output> -0.27871156 </output>
											</split>
											<split pos="right">
												<output> 0.38036096 </output>
											</split>
										</split>
										<split pos="right">
											<output> 0.3621235 </output>
										</split>
									</split>
									<split pos="right">
										<output> 0.31817016 </output>
									</split>
								</split>
								<split pos="right">
									<output> -2.3850443 </output>
								</split>
							</split>
							<split pos="right">
								<output> 1.3494495 </output>
							</split>
						</split>
						<split pos="right">
							<output> 0.13129394 </output>
						</split>
					</split>
					<split pos="right">
						<output> 0.93372923 </output>
					</split>
				</split>
				<split pos="right">
					<output> 0.21573819 </output>
				</split>
			</split>
			<split pos="right">
				<output> 0.18480636 </output>
			</split>
		</split>
	</tree>
	<tree id="45" weight="0.1">
		<split>
			<feature> 10 </feature>
			<threshold> 0.24392658 </threshold>
			<split pos="left">
				<feature> 6 </feature>
				<threshold> 0.4100648 </threshold>
				<split pos="left">
					<feature> 39 </feature>
					<threshold> 0.168627 </threshold>
					<split pos="left">
						<feature> 153 </feature>
						<threshold> 0.592157 </threshold>
						<split pos="left">
							<feature> 38 </feature>
							<threshold> 0.63139457 </threshold>
							<split pos="left">
								<feature> 203 </feature>
								<threshold> 0.80078125 </threshold>
								<split pos="left">
									<feature> 116 </feature>
									<threshold> 0.5036848 </threshold>
									<split pos="left">
										<feature> 62 </feature>
										<threshold> 0.008207849 </threshold>
										<split pos="left">
											<feature> 51 </feature>
											<threshold> 0.50564206 </threshold>
											<split pos="left">
												<output> -0.05388917 </output>
											</split>
											<split pos="right">
												<output> 1.0415108 </output>
											</split>
										</split>
										<split pos="right">
											<output> -4.130093 </output>
										</split>
									</split>
									<split pos="right">
										<output> 1.3620838 </output>
									</split>
								</split>
								<split pos="right">
									<output> -1.1716598 </output>
								</split>
							</split>
							<split pos="right">
								<output> 1.2067361 </output>
							</split>
						</split>
						<split pos="right">
							<output> 0.19321801 </output>
						</split>
					</split>
					<split pos="right">
						<output> -0.40345496 </output>
					</split>
				</split>
				<split pos="right">
					<output> 1.0371602 </output>
				</split>
			</split>
			<split pos="right">
				<output> 0.50293106 </output>
			</split>
		</split>
	</tree>
	<tree id="46" weight="0.1">
		<split>
			<feature> 22 </feature>
			<threshold> 2.54E-4 </threshold>
			<split pos="left">
				<feature> 39 </feature>
				<threshold> 0.180392 </threshold>
				<split pos="left">
					<feature> 153 </feature>
					<threshold> 0.639216 </threshold>
					<split pos="left">
						<feature> 114 </feature>
						<threshold> 0.10336541 </threshold>
						<split pos="left">
							<feature> 169 </feature>
							<threshold> 0.08203125 </threshold>
							<split pos="left">
								<feature> 151 </feature>
								<threshold> 0.6887912 </threshold>
								<split pos="left">
									<feature> 122 </feature>
									<threshold> 0.79737043 </threshold>
									<split pos="left">
										<feature> 205 </feature>
										<threshold> 0.0027243749 </threshold>
										<split pos="left">
											<feature> 55 </feature>
											<threshold> 0.937255 </threshold>
											<split pos="left">
												<output> -0.24615371 </output>
											</split>
											<split pos="right">
												<output> 0.58164436 </output>
											</split>
										</split>
										<split pos="right">
											<output> 1.6882279 </output>
										</split>
									</split>
									<split pos="right">
										<output> 0.9821656 </output>
									</split>
								</split>
								<split pos="right">
									<output> 0.22826992 </output>
								</split>
							</split>
							<split pos="right">
								<output> -0.31810385 </output>
							</split>
						</split>
						<split pos="right">
							<output> 0.2174087 </output>
						</split>
					</split>
					<split pos="right">
						<output> 0.2169771 </output>
					</split>
				</split>
				<split pos="right">
					<output> -0.425197 </output>
				</split>
			</split>
			<split pos="right">
				<output> 0.69328314 </output>
			</split>
		</split>
	</tree>
	<tree id="47" weight="0.1">
		<split>
			<feature> 192 </feature>
			<threshold> 0.11602101 </threshold>
			<split pos="left">
				<feature> 16 </feature>
				<threshold> 0.372549 </threshold>
				<split pos="left">
					<feature> 135 </feature>
					<threshold> 0.627451 </threshold>
					<split pos="left">
						<feature> 57 </feature>
						<threshold> 0.081210926 </threshold>
						<split pos="left">
							<output> -0.24409841 </output>
						</split>
						<split pos="right">
							<feature> 99 </feature>
							<threshold> 0.3298609 </threshold>
							<split pos="left">
								<feature> 14 </feature>
								<threshold> 0.694616 </threshold>
								<split pos="left">
									<output> 0.037757374 </output>
								</split>
								<split pos="right">
									<output> 0.4132304 </output>
								</split>
							</split>
							<split pos="right">
								<feature> 24 </feature>
								<threshold> 0.490196 </threshold>
								<split pos="left">
									<output> -2.0271819 </output>
								</split>
								<split pos="right">
									<feature> 143 </feature>
									<threshold> 0.984314 </threshold>
									<split pos="left">
										<feature> 75 </feature>
										<threshold> 0.596078 </threshold>
										<split pos="left">
											<output> -0.04753907 </output>
										</split>
										<split pos="right">
											<output> 0.565072 </output>
										</split>
									</split>
									<split pos="right">
										<output> -0.3907912 </output>
									</split>
								</split>
							</split>
						</split>
					</split>
					<split pos="right">
						<output> -2.221026 </output>
					</split>
				</split>
				<split pos="right">
					<output> 0.33623263 </output>
				</split>
			</split>
			<split pos="right">
				<output> 0.32849184 </output>
			</split>
		</split>
	</tree>
	<tree id="48" weight="0.1">
		<split>
			<feature> 114 </feature>
			<threshold> 0.06460337 </threshold>
			<split pos="left">
				<feature> 202 </feature>
				<threshold> 3.0172657E-4 </threshold>
				<split pos="left">
					<feature> 162 </feature>
					<threshold> 0.2631969 </threshold>
					<split pos="left">
						<feature> 5 </feature>
						<threshold> 0.0 </threshold>
						<split pos="left">
							<feature> 4 </feature>
							<threshold> 0.73046875 </threshold>
							<split pos="left">
								<feature> 205 </feature>
								<threshold> 0.055032436 </threshold>
								<split pos="left">
									<feature> 182 </feature>
									<threshold> 0.49755356 </threshold>
									<split pos="left">
										<feature> 154 </feature>
										<threshold> 0.929412 </threshold>
										<split pos="left">
											<feature> 70 </feature>
											<threshold> 0.4605352 </threshold>
											<split pos="left">
												<output> -0.08983432 </output>
											</split>
											<split pos="right">
												<output> -1.420325 </output>
											</split>
										</split>
										<split pos="right">
											<output> 1.10739 </output>
										</split>
									</split>
									<split pos="right">
										<output> 1.392833 </output>
									</split>
								</split>
								<split pos="right">
									<output> -4.6504726 </output>
								</split>
							</split>
							<split pos="right">
								<output> -3.3671594 </output>
							</split>
						</split>
						<split pos="right">
							<output> 0.15505649 </output>
						</split>
					</split>
					<split pos="right">
						<output> -1.9764684 </output>
					</split>
				</split>
				<split pos="right">
					<output> -0.71257776 </output>
				</split>
			</split>
			<split pos="right">
				<output> 0.22525834 </output>
			</split>
		</split>
	</tree>
	<tree id="49" weight="0.1">
		<split>
			<feature> 182 </feature>
			<threshold> 0.45895013 </threshold>
			<split pos="left">
				<feature> 10 </feature>
				<threshold> 0.24392658 </threshold>
				<split pos="left">
					<feature> 78 </feature>
					<threshold> 0.22194384 </threshold>
					<split pos="left">
						<output> -0.24058205 </output>
					</split>
					<split pos="right">
						<feature> 202 </feature>
						<threshold> 0.035905425 </threshold>
						<split pos="left">
							<feature> 183 </feature>
							<threshold> 0.98331237 </threshold>
							<split pos="left">
								<feature> 153 </feature>
								<threshold> 0.647059 </threshold>
								<split pos="left">
									<feature> 205 </feature>
									<threshold> 0.0108974995 </threshold>
									<split pos="left">
										<feature> 106 </feature>
										<threshold> 0.945098 </threshold>
										<split pos="left">
											<feature> 167 </feature>
											<threshold> 0.392157 </threshold>
											<split pos="left">
												<output> -0.005089311 </output>
											</split>
											<split pos="right">
												<output> -0.33038425 </output>
											</split>
										</split>
										<split pos="right">
											<output> 0.87942904 </output>
										</split>
									</split>
									<split pos="right">
										<output> 0.47178608 </output>
									</split>
								</split>
								<split pos="right">
									<output> 0.21286647 </output>
								</split>
							</split>
							<split pos="right">
								<output> 1.0313946 </output>
							</split>
						</split>
						<split pos="right">
							<output> -2.7706568 </output>
						</split>
					</split>
				</split>
				<split pos="right">
					<output> 0.45307258 </output>
				</split>
			</split>
			<split pos="right">
				<output> 0.7606564 </output>
			</split>
		</split>
	</tree>
	<tree id="50" weight="0.1">
		<split>
			<feature> 182 </feature>
			<threshold> 0.45895013 </threshold>
			<split pos="left">
				<feature> 12 </feature>
				<threshold> 0.49203262 </threshold>
				<split pos="left">
					<output> -0.23349996 </output>
				</split>
				<split pos="right">
					<feature> 55 </feature>
					<threshold> 0.105882 </threshold>
					<split pos="left">
						<output> 0.24637756 </output>
					</split>
					<split pos="right">
						<feature> 167 </feature>
						<threshold> 0.611765 </threshold>
						<split pos="left">
							<feature> 179 </feature>
							<threshold> 0.239216 </threshold>
							<split pos="left">
								<output> -0.5230552 </output>
							</split>
							<split pos="right">
								<feature> 212 </feature>
								<threshold> 0.054902 </threshold>
								<split pos="left">
									<output> -1.6891352 </output>
								</split>
								<split pos="right">
									<feature> 23 </feature>
									<threshold> 0.0 </threshold>
									<split pos="left">
										<output> 0.27095902 </output>
									</split>
									<split pos="right">
										<feature> 7 </feature>
										<threshold> 0.0 </threshold>
										<split pos="left">
											<feature> 116 </feature>
											<threshold> 0.49098685 </threshold>
											<split pos="left">
												<output> -0.056427017 </output>
											</split>
											<split pos="right">
												<output> -3.191445 </output>
											</split>
										</split>
										<split pos="right">
											<output> 0.67747676 </output>
										</split>
									</split>
								</split>
							</split>
						</split>
						<split pos="right">
							<output> 1.1514636 </output>
						</split>
					</split>
				</split>
			</split>
			<split pos="right">
				<output> 0.664784 </output>
			</split>
		</split>
	</tree>
	<tree id="51" weight="0.1">
		<split>
			<feature> 196 </feature>
			<threshold> 0.0 </threshold>
			<split pos="left">
				<feature> 150 </feature>
				<threshold> 0.39453125 </threshold>
				<split pos="left">
					<feature> 225 </feature>
					<threshold> 0.509804 </threshold>
					<split pos="left">
						<feature> 19 </feature>
						<threshold> 0.992157 </threshold>
						<split pos="left">
							<feature> 41 </feature>
							<threshold> 0.0 </threshold>
							<split pos="left">
								<output> -0.19843063 </output>
							</split>
							<split pos="right">
								<output> 0.33003557 </output>
							</split>
						</split>
						<split pos="right">
							<output> -0.37382287 </output>
						</split>
					</split>
					<split pos="right">
						<output> 2.1078324 </output>
					</split>
				</split>
				<split pos="right">
					<output> 0.17652929 </output>
				</split>
			</split>
			<split pos="right">
				<feature> 87 </feature>
				<threshold> 0.066667 </threshold>
				<split pos="left">
					<feature> 186 </feature>
					<threshold> 0.905882 </threshold>
					<split pos="left">
						<output> 0.3042509 </output>
					</split>
					<split pos="right">
						<output> 1.2513999 </output>
					</split>
				</split>
				<split pos="right">
					<feature> 167 </feature>
					<threshold> 0.611765 </threshold>
					<split pos="left">
						<feature> 200 </feature>
						<threshold> 0.32412684 </threshold>
						<split pos="left">
							<output> 0.1631901 </output>
						</split>
						<split pos="right">
							<output> -0.20372923 </output>
						</split>
					</split>
					<split pos="right">
						<output> 1.132899 </output>
					</split>
				</split>
			</split>
		</split>
	</tree>
	<tree id="52" weight="0.1">
		<split>
			<feature> 192 </feature>
			<threshold> 0.01800327 </threshold>
			<split pos="left">
				<feature> 31 </feature>
				<threshold> 0.19097094 </threshold>
				<split pos="left">
					<feature> 198 </feature>
					<threshold> 0.22420222 </threshold>
					<split pos="left">
						<feature> 106 </feature>
						<threshold> 0.937255 </threshold>
						<split pos="left">
							<feature> 158 </feature>
							<threshold> 0.035531808 </threshold>
							<split pos="left">
								<feature> 14 </feature>
								<threshold> 0.8390017 </threshold>
								<split pos="left">
									<feature> 145 </feature>
									<threshold> 0.4285279 </threshold>
									<split pos="left">
										<feature> 234 </feature>
										<threshold> 0.58686155 </threshold>
										<split pos="left">
											<feature> 231 </feature>
											<threshold> 0.216453 </threshold>
											<split pos="left">
												<output> -0.10973025 </output>
											</split>
											<split pos="right">
												<output> 1.3470016 </output>
											</split>
										</split>
										<split pos="right">
											<output> 0.5433622 </output>
										</split>
									</split>
									<split pos="right">
										<output> -0.48772767 </output>
									</split>
								</split>
								<split pos="right">
									<output> 1.3028525 </output>
								</split>
							</split>
							<split pos="right">
								<output> 0.47672892 </output>
							</split>
						</split>
						<split pos="right">
							<output> 0.57202566 </output>
						</split>
					</split>
					<split pos="right">
						<output> -0.71653426 </output>
					</split>
				</split>
				<split pos="right">
					<output> 0.34553927 </output>
				</split>
			</split>
			<split pos="right">
				<output> 0.18303336 </output>
			</split>
		</split>
	</tree>
	<tree id="53" weight="0.1">
		<split>
			<feature> 68 </feature>
			<threshold> 0.25 </threshold>
			<split pos="left">
				<feature> 182 </feature>
				<threshold> 0.49755356 </threshold>
				<split pos="left">
					<feature> 234 </feature>
					<threshold> 0.6231243 </threshold>
					<split pos="left">
						<feature> 175 </feature>
						<threshold> 0.0 </threshold>
						<split pos="left">
							<feature> 234 </feature>
							<threshold> 0.60993785 </threshold>
							<split pos="left">
								<feature> 168 </feature>
								<threshold> 0.10109003 </threshold>
								<split pos="left">
									<feature> 6 </feature>
									<threshold> 0.28704527 </threshold>
									<split pos="left">
										<feature> 110 </feature>
										<threshold> 0.0 </threshold>
										<split pos="left">
											<feature> 225 </feature>
											<threshold> 0.509804 </threshold>
											<split pos="left">
												<output> -0.15376872 </output>
											</split>
											<split pos="right">
												<output> 1.6236401 </output>
											</split>
										</split>
										<split pos="right">
											<output> 1.0292562 </output>
										</split>
									</split>
									<split pos="right">
										<output> -3.311246 </output>
									</split>
								</split>
								<split pos="right">
									<output> 1.1399276 </output>
								</split>
							</split>
							<split pos="right">
								<output> 0.7132063 </output>
							</split>
						</split>
						<split pos="right">
							<output> 0.124867834 </output>
						</split>
					</split>
					<split pos="right">
						<output> -0.5300733 </output>
					</split>
				</split>
				<split pos="right">
					<output> 0.86056954 </output>
				</split>
			</split>
			<split pos="right">
				<output> 0.25050762 </output>
			</split>
		</split>
	</tree>
	<tree id="54" weight="0.1">
		<split>
			<feature> 205 </feature>
			<threshold> 0.0021795 </threshold>
			<split pos="left">
				<feature> 8 </feature>
				<threshold> 0.21046399 </threshold>
				<split pos="left">
					<output> -0.2532402 </output>
				</split>
				<split pos="right">
					<feature> 153 </feature>
					<threshold> 0.647059 </threshold>
					<split pos="left">
						<feature> 16 </feature>
						<threshold> 0.403922 </threshold>
						<split pos="left">
							<feature> 135 </feature>
							<threshold> 0.627451 </threshold>
							<split pos="left">
								<feature> 86 </feature>
								<threshold> 0.972549 </threshold>
								<split pos="left">
									<feature> 234 </feature>
									<threshold> 0.61488277 </threshold>
									<split pos="left">
										<feature> 102 </feature>
										<threshold> 0.3779292 </threshold>
										<split pos="left">
											<feature> 109 </feature>
											<threshold> 0.113725 </threshold>
											<split pos="left">
												<output> 0.5073812 </output>
											</split>
											<split pos="right">
												<output> -0.06117273 </output>
											</split>
										</split>
										<split pos="right">
											<output> -2.2081532 </output>
										</split>
									</split>
									<split pos="right">
										<output> 0.59375495 </output>
									</split>
								</split>
								<split pos="right">
									<output> -0.21069302 </output>
								</split>
							</split>
							<split pos="right">
								<output> -2.040498 </output>
							</split>
						</split>
						<split pos="right">
							<output> 0.5166108 </output>
						</split>
					</split>
					<split pos="right">
						<output> 0.25162324 </output>
					</split>
				</split>
			</split>
			<split pos="right">
				<output> 0.30182037 </output>
			</split>
		</split>
	</tree>
	<tree id="55" weight="0.1">
		<split>
			<feature> 192 </feature>
			<threshold> 0.11602101 </threshold>
			<split pos="left">
				<feature> 101 </feature>
				<threshold> 0.99609375 </threshold>
				<split pos="left">
					<feature> 16 </feature>
					<threshold> 0.082353 </threshold>
					<split pos="left">
						<output> -0.17974868 </output>
					</split>
					<split pos="right">
						<feature> 75 </feature>
						<threshold> 0.345098 </threshold>
						<split pos="left">
							<output> 0.4039583 </output>
						</split>
						<split pos="right">
							<feature> 195 </feature>
							<threshold> 0.17513934 </threshold>
							<split pos="left">
								<feature> 135 </feature>
								<threshold> 0.478431 </threshold>
								<split pos="left">
									<feature> 134 </feature>
									<threshold> 0.0 </threshold>
									<split pos="left">
										<feature> 225 </feature>
										<threshold> 0.513726 </threshold>
										<split pos="left">
											<feature> 234 </feature>
											<threshold> 0.5522471 </threshold>
											<split pos="left">
												<output> -0.23255688 </output>
											</split>
